<?xml version="1.0"?>
<opencv_storage>
<cascade>
  <stageType>BOOST</stageType>
  <featureType>HAAR</featureType>
  <height>50</height>
  <width>50</width>
  <stageParams>
    <boostType>GAB</boostType>
    <minHitRate>9.9500000476837158e-01</minHitRate>
    <maxFalseAlarm>5.0000000000000000e-01</maxFalseAlarm>
    <weightTrimRate>9.4999999999999996e-01</weightTrimRate>
    <maxDepth>1</maxDepth>
    <maxWeakCount>100</maxWeakCount></stageParams>
  <featureParams>
    <maxCatCount>0</maxCatCount>
    <featSize>1</featSize>
    <mode>ALL</mode></featureParams>
  <stageNum>4</stageNum>
  <stages>
    <!-- stage 0 -->
    <_>
      <maxWeakCount>3</maxWeakCount>
      <stageThreshold>-1.1704802513122559e+00</stageThreshold>
      <weakClassifiers>
        <_>
          <internalNodes>
            0 -1 2 -1.0455160401761532e-02</internalNodes>
          <leafValues>
            9.1079813241958618e-01 -9.9080735445022583e-01</leafValues></_>
        <_>
          <internalNodes>
            0 -1 1 1.0964933782815933e-02</internalNodes>
          <leafValues>
            -9.7893989086151123e-01 7.7234441041946411e-01</leafValues></_>
        <_>
          <internalNodes>
            0 -1 6 1.8136201798915863e-01</internalNodes>
          <leafValues>
            -9.7879910469055176e-01 7.9926699399948120e-01</leafValues></_></weakClassifiers></_>
    <!-- stage 1 -->
    <_>
      <maxWeakCount>3</maxWeakCount>
      <stageThreshold>-1.1103240251541138e+00</stageThreshold>
      <weakClassifiers>
        <_>
          <internalNodes>
            0 -1 5 8.8505111634731293e-03</internalNodes>
          <leafValues>
            -9.8640817403793335e-01 8.5480093955993652e-01</leafValues></_>
        <_>
          <internalNodes>
            0 -1 8 -6.5797483548521996e-03</internalNodes>
          <leafValues>
            9.0726828575134277e-01 -9.6189928054809570e-01</leafValues></_>
        <_>
          <internalNodes>
            0 -1 9 3.4562391228973866e-03</internalNodes>
          <leafValues>
            -9.8094886541366577e-01 8.3798342943191528e-01</leafValues></_></weakClassifiers></_>
    <!-- stage 2 -->
    <_>
      <maxWeakCount>3</maxWeakCount>
      <stageThreshold>-1.2868537902832031e+00</stageThreshold>
      <weakClassifiers>
        <_>
          <internalNodes>
            0 -1 11 4.4339476153254509e-03</internalNodes>
          <leafValues>
            -9.7621876001358032e-01 9.2708331346511841e-01</leafValues></_>
        <_>
          <internalNodes>
            0 -1 10 1.3790249824523926e-02</internalNodes>
          <leafValues>
            -9.5452719926834106e-01 7.1066498756408691e-01</leafValues></_>
        <_>
          <internalNodes>
            0 -1 0 1.3482555747032166e-02</internalNodes>
          <leafValues>
            -9.3690037727355957e-01 6.4389222860336304e-01</leafValues></_></weakClassifiers></_>
    <!-- stage 3 -->
    <_>
      <maxWeakCount>3</maxWeakCount>
      <stageThreshold>-1.1394875049591064e+00</stageThreshold>
      <weakClassifiers>
        <_>
          <internalNodes>
            0 -1 3 -5.9018954634666443e-03</internalNodes>
          <leafValues>
            7.3831772804260254e-01 -9.7680926322937012e-01</leafValues></_>
        <_>
          <internalNodes>
            0 -1 7 -3.2384120859205723e-03</internalNodes>
          <leafValues>
            8.7094074487686157e-01 -9.3120735883712769e-01</leafValues></_>
        <_>
          <internalNodes>
            0 -1 4 -8.6704812943935394e-02</internalNodes>
          <leafValues>
            7.6852911710739136e-01 -9.4342637062072754e-01</leafValues></_></weakClassifiers></_></stages>
  <features>
    <_>
      <rects>
        <_>
          0 0 8 39 -1.</_>
        <_>
          2 0 4 39 2.</_></rects>
      <tilted>0</tilted></_>
    <_>
      <rects>
        <_>
          0 20 6 14 -1.</_>
        <_>
          2 20 2 14 3.</_></rects>
      <tilted>0</tilted></_>
    <_>
      <rects>
        <_>
          2 20 6 8 -1.</_>
        <_>
          4 20 2 8 3.</_></rects>
      <tilted>0</tilted></_>
    <_>
      <rects>
        <_>
          4 48 32 2 -1.</_>
        <_>
          4 49 32 1 2.</_></rects>
      <tilted>0</tilted></_>
    <_>
      <rects>
        <_>
          7 2 36 9 -1.</_>
        <_>
          19 5 12 3 9.</_></rects>
      <tilted>0</tilted></_>
    <_>
      <rects>
        <_>
          13 2 4 11 -1.</_>
        <_>
          14 3 2 11 2.</_></rects>
      <tilted>1</tilted></_>
    <_>
      <rects>
        <_>
          13 12 22 30 -1.</_>
        <_>
          13 22 22 10 3.</_></rects>
      <tilted>0</tilted></_>
    <_>
      <rects>
        <_>
          13 21 6 4 -1.</_>
        <_>
          15 21 2 4 3.</_></rects>
      <tilted>0</tilted></_>
    <_>
      <rects>
        <_>
          20 22 9 3 -1.</_>
        <_>
          23 22 3 3 3.</_></rects>
      <tilted>0</tilted></_>
    <_>
      <rects>
        <_>
          21 1 15 3 -1.</_>
        <_>
          21 2 15 1 3.</_></rects>
      <tilted>0</tilted></_>
    <_>
      <rects>
        <_>
          41 34 8 8 -1.</_>
        <_>
          43 36 4 8 2.</_></rects>
      <tilted>1</tilted></_>
    <_>
      <rects>
        <_>
          46 19 4 17 -1.</_>
        <_>
          47 19 2 17 2.</_></rects>
      <tilted>0</tilted></_></features></cascade>
</opencv_storage>
