<?xml version="1.0"?>
<opencv_storage>
<cascade>
  <stageType>BOOST</stageType>
  <featureType>HAAR</featureType>
  <height>40</height>
  <width>90</width>
  <stageParams>
    <boostType>GAB</boostType>
    <minHitRate>9.9500000476837158e-01</minHitRate>
    <maxFalseAlarm>5.0000000000000000e-01</maxFalseAlarm>
    <weightTrimRate>9.4999999999999996e-01</weightTrimRate>
    <maxDepth>1</maxDepth>
    <maxWeakCount>100</maxWeakCount></stageParams>
  <featureParams>
    <maxCatCount>0</maxCatCount>
    <featSize>1</featSize>
    <mode>ALL</mode></featureParams>
  <stageNum>6</stageNum>
  <stages>
    <!-- stage 0 -->
    <_>
      <maxWeakCount>1</maxWeakCount>
      <stageThreshold>9.2418235540390015e-01</stageThreshold>
      <weakClassifiers>
        <_>
          <internalNodes>
            0 -1 6 2.8922802209854126e-01</internalNodes>
          <leafValues>
            -9.9300986528396606e-01 9.2418235540390015e-01</leafValues></_></weakClassifiers></_>
    <!-- stage 1 -->
    <_>
      <maxWeakCount>2</maxWeakCount>
      <stageThreshold>-8.7405435740947723e-02</stageThreshold>
      <weakClassifiers>
        <_>
          <internalNodes>
            0 -1 11 -2.9865995049476624e-02</internalNodes>
          <leafValues>
            9.2917704582214355e-01 -9.8691207170486450e-01</leafValues></_>
        <_>
          <internalNodes>
            0 -1 0 1.5400867909193039e-02</internalNodes>
          <leafValues>
            -9.1594564914703369e-01 8.9950662851333618e-01</leafValues></_></weakClassifiers></_>
    <!-- stage 2 -->
    <_>
      <maxWeakCount>2</maxWeakCount>
      <stageThreshold>-2.4852420389652252e-01</stageThreshold>
      <weakClassifiers>
        <_>
          <internalNodes>
            0 -1 5 1.7596058547496796e-02</internalNodes>
          <leafValues>
            -8.8016700744628906e-01 7.5815087556838989e-01</leafValues></_>
        <_>
          <internalNodes>
            0 -1 1 1.3603897392749786e-01</internalNodes>
          <leafValues>
            -9.9608832597732544e-01 6.3164281845092773e-01</leafValues></_></weakClassifiers></_>
    <!-- stage 3 -->
    <_>
      <maxWeakCount>3</maxWeakCount>
      <stageThreshold>-1.1209192276000977e+00</stageThreshold>
      <weakClassifiers>
        <_>
          <internalNodes>
            0 -1 10 9.0020131319761276e-03</internalNodes>
          <leafValues>
            -8.6062276363372803e-01 7.0902127027511597e-01</leafValues></_>
        <_>
          <internalNodes>
            0 -1 3 5.0263539887964725e-03</internalNodes>
          <leafValues>
            -8.4190744161605835e-01 7.0350581407546997e-01</leafValues></_>
        <_>
          <internalNodes>
            0 -1 9 1.1210986226797104e-01</internalNodes>
          <leafValues>
            -9.8348313570022583e-01 5.8161097764968872e-01</leafValues></_></weakClassifiers></_>
    <!-- stage 4 -->
    <_>
      <maxWeakCount>2</maxWeakCount>
      <stageThreshold>-2.8471329808235168e-01</stageThreshold>
      <weakClassifiers>
        <_>
          <internalNodes>
            0 -1 2 9.5128519460558891e-03</internalNodes>
          <leafValues>
            -8.8202470541000366e-01 8.5677486658096313e-01</leafValues></_>
        <_>
          <internalNodes>
            0 -1 8 -8.8451075134798884e-04</internalNodes>
          <leafValues>
            5.9731143712997437e-01 -9.6606272459030151e-01</leafValues></_></weakClassifiers></_>
    <!-- stage 5 -->
    <_>
      <maxWeakCount>2</maxWeakCount>
      <stageThreshold>-1.6388779878616333e-01</stageThreshold>
      <weakClassifiers>
        <_>
          <internalNodes>
            0 -1 4 -3.8432744145393372e-01</internalNodes>
          <leafValues>
            7.8586280345916748e-01 -8.1631034612655640e-01</leafValues></_>
        <_>
          <internalNodes>
            0 -1 7 3.2811362762004137e-03</internalNodes>
          <leafValues>
            -9.2465776205062866e-01 6.5242254734039307e-01</leafValues></_></weakClassifiers></_></stages>
  <features>
    <_>
      <rects>
        <_>
          2 5 10 21 -1.</_>
        <_>
          7 5 5 21 2.</_></rects>
      <tilted>0</tilted></_>
    <_>
      <rects>
        <_>
          2 15 88 17 -1.</_>
        <_>
          24 15 44 17 2.</_></rects>
      <tilted>0</tilted></_>
    <_>
      <rects>
        <_>
          3 1 12 25 -1.</_>
        <_>
          7 1 4 25 3.</_></rects>
      <tilted>0</tilted></_>
    <_>
      <rects>
        <_>
          3 12 12 12 -1.</_>
        <_>
          7 12 4 12 3.</_></rects>
      <tilted>0</tilted></_>
    <_>
      <rects>
        <_>
          4 16 78 24 -1.</_>
        <_>
          4 28 78 12 2.</_></rects>
      <tilted>0</tilted></_>
    <_>
      <rects>
        <_>
          19 0 43 12 -1.</_>
        <_>
          19 3 43 6 2.</_></rects>
      <tilted>0</tilted></_>
    <_>
      <rects>
        <_>
          21 0 63 40 -1.</_>
        <_>
          21 10 63 20 2.</_></rects>
      <tilted>0</tilted></_>
    <_>
      <rects>
        <_>
          33 0 15 8 -1.</_>
        <_>
          31 2 15 4 2.</_></rects>
      <tilted>1</tilted></_>
    <_>
      <rects>
        <_>
          34 9 26 9 -1.</_>
        <_>
          34 12 26 3 3.</_></rects>
      <tilted>0</tilted></_>
    <_>
      <rects>
        <_>
          37 2 52 38 -1.</_>
        <_>
          50 2 26 38 2.</_></rects>
      <tilted>0</tilted></_>
    <_>
      <rects>
        <_>
          73 8 12 20 -1.</_>
        <_>
          76 8 6 20 2.</_></rects>
      <tilted>0</tilted></_>
    <_>
      <rects>
        <_>
          75 2 12 32 -1.</_>
        <_>
          81 2 6 32 2.</_></rects>
      <tilted>0</tilted></_></features></cascade>
</opencv_storage>
