<?xml version="1.0"?>
<opencv_storage>
<cascade>
  <stageType>BOOST</stageType>
  <featureType>HAAR</featureType>
  <height>90</height>
  <width>65</width>
  <stageParams>
    <boostType>GAB</boostType>
    <minHitRate>9.9500000476837158e-01</minHitRate>
    <maxFalseAlarm>5.0000000000000000e-01</maxFalseAlarm>
    <weightTrimRate>9.4999999999999996e-01</weightTrimRate>
    <maxDepth>1</maxDepth>
    <maxWeakCount>100</maxWeakCount></stageParams>
  <featureParams>
    <maxCatCount>0</maxCatCount>
    <featSize>1</featSize>
    <mode>ALL</mode></featureParams>
  <stageNum>12</stageNum>
  <stages>
    <!-- stage 0 -->
    <_>
      <maxWeakCount>2</maxWeakCount>
      <stageThreshold>-4.2010882496833801e-01</stageThreshold>
      <weakClassifiers>
        <_>
          <internalNodes>
            0 -1 17 1.4967821538448334e-01</internalNodes>
          <leafValues>
            -9.7130978107452393e-01 6.9349110126495361e-01</leafValues></_>
        <_>
          <internalNodes>
            0 -1 7 1.5366033650934696e-02</internalNodes>
          <leafValues>
            -9.6992421150207520e-01 5.5120092630386353e-01</leafValues></_></weakClassifiers></_>
    <!-- stage 1 -->
    <_>
      <maxWeakCount>2</maxWeakCount>
      <stageThreshold>-4.7923162579536438e-01</stageThreshold>
      <weakClassifiers>
        <_>
          <internalNodes>
            0 -1 5 6.7314289510250092e-02</internalNodes>
          <leafValues>
            -8.9768022298812866e-01 4.9880382418632507e-01</leafValues></_>
        <_>
          <internalNodes>
            0 -1 22 5.0875367596745491e-03</internalNodes>
          <leafValues>
            -9.7803544998168945e-01 4.7652015089988708e-01</leafValues></_></weakClassifiers></_>
    <!-- stage 2 -->
    <_>
      <maxWeakCount>3</maxWeakCount>
      <stageThreshold>-1.1884355545043945e+00</stageThreshold>
      <weakClassifiers>
        <_>
          <internalNodes>
            0 -1 26 4.9416255205869675e-04</internalNodes>
          <leafValues>
            -8.9859157800674438e-01 3.4323608875274658e-01</leafValues></_>
        <_>
          <internalNodes>
            0 -1 6 1.6463154554367065e-01</internalNodes>
          <leafValues>
            -7.7005630731582642e-01 6.6212391853332520e-01</leafValues></_>
        <_>
          <internalNodes>
            0 -1 3 2.5119078345596790e-03</internalNodes>
          <leafValues>
            -8.9338922500610352e-01 4.8021224141120911e-01</leafValues></_></weakClassifiers></_>
    <!-- stage 3 -->
    <_>
      <maxWeakCount>3</maxWeakCount>
      <stageThreshold>-1.4121855497360229e+00</stageThreshold>
      <weakClassifiers>
        <_>
          <internalNodes>
            0 -1 26 4.4728512875735760e-04</internalNodes>
          <leafValues>
            -9.1148900985717773e-01 3.5598537325859070e-01</leafValues></_>
        <_>
          <internalNodes>
            0 -1 8 -1.8769768939819187e-04</internalNodes>
          <leafValues>
            4.0044525265693665e-01 -9.0359157323837280e-01</leafValues></_>
        <_>
          <internalNodes>
            0 -1 20 -6.2699308618903160e-03</internalNodes>
          <leafValues>
            4.1420492529869080e-01 -8.6457937955856323e-01</leafValues></_></weakClassifiers></_>
    <!-- stage 4 -->
    <_>
      <maxWeakCount>3</maxWeakCount>
      <stageThreshold>-1.0734441280364990e+00</stageThreshold>
      <weakClassifiers>
        <_>
          <internalNodes>
            0 -1 12 -3.3810440450906754e-02</internalNodes>
          <leafValues>
            6.2910383939743042e-01 -7.8336125612258911e-01</leafValues></_>
        <_>
          <internalNodes>
            0 -1 19 1.3707059621810913e-01</internalNodes>
          <leafValues>
            -8.4961044788360596e-01 4.7835013270378113e-01</leafValues></_>
        <_>
          <internalNodes>
            0 -1 15 -2.4515015538781881e-03</internalNodes>
          <leafValues>
            5.7364106178283691e-01 -7.6843297481536865e-01</leafValues></_></weakClassifiers></_>
    <!-- stage 5 -->
    <_>
      <maxWeakCount>3</maxWeakCount>
      <stageThreshold>-9.3243175745010376e-01</stageThreshold>
      <weakClassifiers>
        <_>
          <internalNodes>
            0 -1 21 1.5678682923316956e-01</internalNodes>
          <leafValues>
            -7.2690761089324951e-01 8.5769730806350708e-01</leafValues></_>
        <_>
          <internalNodes>
            0 -1 11 -1.6215976327657700e-02</internalNodes>
          <leafValues>
            6.8719589710235596e-01 -6.8796873092651367e-01</leafValues></_>
        <_>
          <internalNodes>
            0 -1 4 3.8515997584909201e-04</internalNodes>
          <leafValues>
            -8.9271998405456543e-01 5.1155996322631836e-01</leafValues></_></weakClassifiers></_>
    <!-- stage 6 -->
    <_>
      <maxWeakCount>3</maxWeakCount>
      <stageThreshold>-1.2277232408523560e+00</stageThreshold>
      <weakClassifiers>
        <_>
          <internalNodes>
            0 -1 24 2.3439601063728333e-01</internalNodes>
          <leafValues>
            -7.0008540153503418e-01 9.2868214845657349e-01</leafValues></_>
        <_>
          <internalNodes>
            0 -1 25 1.0465170256793499e-02</internalNodes>
          <leafValues>
            -8.5238844156265259e-01 4.4709548354148865e-01</leafValues></_>
        <_>
          <internalNodes>
            0 -1 9 1.8369171768426895e-02</internalNodes>
          <leafValues>
            -9.8848462104797363e-01 3.2475066184997559e-01</leafValues></_></weakClassifiers></_>
    <!-- stage 7 -->
    <_>
      <maxWeakCount>3</maxWeakCount>
      <stageThreshold>-1.0711134672164917e+00</stageThreshold>
      <weakClassifiers>
        <_>
          <internalNodes>
            0 -1 23 7.0494517683982849e-02</internalNodes>
          <leafValues>
            -8.9316606521606445e-01 3.3582088351249695e-01</leafValues></_>
        <_>
          <internalNodes>
            0 -1 13 1.9989974796772003e-02</internalNodes>
          <leafValues>
            -7.3353147506713867e-01 5.5841541290283203e-01</leafValues></_>
        <_>
          <internalNodes>
            0 -1 31 -3.6612130701541901e-02</internalNodes>
          <leafValues>
            5.6121015548706055e-01 -7.3636275529861450e-01</leafValues></_></weakClassifiers></_>
    <!-- stage 8 -->
    <_>
      <maxWeakCount>2</maxWeakCount>
      <stageThreshold>-3.8182842731475830e-01</stageThreshold>
      <weakClassifiers>
        <_>
          <internalNodes>
            0 -1 16 -5.9645129367709160e-03</internalNodes>
          <leafValues>
            6.2004172801971436e-01 -7.3872250318527222e-01</leafValues></_>
        <_>
          <internalNodes>
            0 -1 32 -1.8457445548847318e-04</internalNodes>
          <leafValues>
            -9.9131876230239868e-01 3.5689404606819153e-01</leafValues></_></weakClassifiers></_>
    <!-- stage 9 -->
    <_>
      <maxWeakCount>4</maxWeakCount>
      <stageThreshold>-7.5555795431137085e-01</stageThreshold>
      <weakClassifiers>
        <_>
          <internalNodes>
            0 -1 28 3.2052285969257355e-02</internalNodes>
          <leafValues>
            -8.2639616727828979e-01 2.6236182451248169e-01</leafValues></_>
        <_>
          <internalNodes>
            0 -1 10 -3.5513606853783131e-03</internalNodes>
          <leafValues>
            5.8072167634963989e-01 -6.7672258615493774e-01</leafValues></_>
        <_>
          <internalNodes>
            0 -1 2 -2.5047957897186279e-03</internalNodes>
          <leafValues>
            5.1776051521301270e-01 -7.1134591102600098e-01</leafValues></_>
        <_>
          <internalNodes>
            0 -1 30 -8.6450409144163132e-03</internalNodes>
          <leafValues>
            3.7014874815940857e-01 -9.5012742280960083e-01</leafValues></_></weakClassifiers></_>
    <!-- stage 10 -->
    <_>
      <maxWeakCount>2</maxWeakCount>
      <stageThreshold>-3.6899352073669434e-01</stageThreshold>
      <weakClassifiers>
        <_>
          <internalNodes>
            0 -1 14 1.2882989645004272e-01</internalNodes>
          <leafValues>
            -7.0489507913589478e-01 6.8205130100250244e-01</leafValues></_>
        <_>
          <internalNodes>
            0 -1 29 -6.3234340632334352e-04</internalNodes>
          <leafValues>
            -9.8717534542083740e-01 3.3590155839920044e-01</leafValues></_></weakClassifiers></_>
    <!-- stage 11 -->
    <_>
      <maxWeakCount>4</maxWeakCount>
      <stageThreshold>-7.1500635147094727e-01</stageThreshold>
      <weakClassifiers>
        <_>
          <internalNodes>
            0 -1 27 3.3895984292030334e-02</internalNodes>
          <leafValues>
            -7.0253598690032959e-01 9.0361446142196655e-01</leafValues></_>
        <_>
          <internalNodes>
            0 -1 0 -1.1980711482465267e-02</internalNodes>
          <leafValues>
            4.5224252343177795e-01 -8.9163172245025635e-01</leafValues></_>
        <_>
          <internalNodes>
            0 -1 1 1.2259548157453537e-01</internalNodes>
          <leafValues>
            -8.4123843908309937e-01 4.9195677042007446e-01</leafValues></_>
        <_>
          <internalNodes>
            0 -1 18 -1.4280065079219639e-04</internalNodes>
          <leafValues>
            -9.4852089881896973e-01 3.8720452785491943e-01</leafValues></_></weakClassifiers></_></stages>
  <features>
    <_>
      <rects>
        <_>
          0 23 7 66 -1.</_>
        <_>
          0 56 7 33 2.</_></rects>
      <tilted>0</tilted></_>
    <_>
      <rects>
        <_>
          1 0 28 77 -1.</_>
        <_>
          15 0 14 77 2.</_></rects>
      <tilted>0</tilted></_>
    <_>
      <rects>
        <_>
          1 55 12 23 -1.</_>
        <_>
          4 55 6 23 2.</_></rects>
      <tilted>0</tilted></_>
    <_>
      <rects>
        <_>
          3 61 18 4 -1.</_>
        <_>
          12 61 9 4 2.</_></rects>
      <tilted>0</tilted></_>
    <_>
      <rects>
        <_>
          3 77 4 10 -1.</_>
        <_>
          3 82 4 5 2.</_></rects>
      <tilted>0</tilted></_>
    <_>
      <rects>
        <_>
          4 10 22 69 -1.</_>
        <_>
          15 10 11 69 2.</_></rects>
      <tilted>0</tilted></_>
    <_>
      <rects>
        <_>
          5 33 60 18 -1.</_>
        <_>
          25 39 20 6 9.</_></rects>
      <tilted>0</tilted></_>
    <_>
      <rects>
        <_>
          6 2 54 10 -1.</_>
        <_>
          6 7 54 5 2.</_></rects>
      <tilted>0</tilted></_>
    <_>
      <rects>
        <_>
          6 73 2 6 -1.</_>
        <_>
          6 73 2 3 2.</_></rects>
      <tilted>1</tilted></_>
    <_>
      <rects>
        <_>
          7 0 54 24 -1.</_>
        <_>
          7 8 54 8 3.</_></rects>
      <tilted>0</tilted></_>
    <_>
      <rects>
        <_>
          7 67 36 9 -1.</_>
        <_>
          7 70 36 3 3.</_></rects>
      <tilted>0</tilted></_>
    <_>
      <rects>
        <_>
          9 0 54 12 -1.</_>
        <_>
          9 0 27 6 2.</_>
        <_>
          36 6 27 6 2.</_></rects>
      <tilted>0</tilted></_>
    <_>
      <rects>
        <_>
          12 7 39 11 -1.</_>
        <_>
          25 7 13 11 3.</_></rects>
      <tilted>0</tilted></_>
    <_>
      <rects>
        <_>
          12 30 32 8 -1.</_>
        <_>
          12 30 32 4 2.</_></rects>
      <tilted>1</tilted></_>
    <_>
      <rects>
        <_>
          13 5 46 26 -1.</_>
        <_>
          36 5 23 26 2.</_></rects>
      <tilted>0</tilted></_>
    <_>
      <rects>
        <_>
          14 77 28 12 -1.</_>
        <_>
          14 80 28 6 2.</_></rects>
      <tilted>0</tilted></_>
    <_>
      <rects>
        <_>
          15 55 12 19 -1.</_>
        <_>
          19 55 4 19 3.</_></rects>
      <tilted>0</tilted></_>
    <_>
      <rects>
        <_>
          17 14 48 63 -1.</_>
        <_>
          33 14 16 63 3.</_></rects>
      <tilted>0</tilted></_>
    <_>
      <rects>
        <_>
          22 89 40 1 -1.</_>
        <_>
          32 89 20 1 2.</_></rects>
      <tilted>0</tilted></_>
    <_>
      <rects>
        <_>
          23 26 42 51 -1.</_>
        <_>
          37 26 14 51 3.</_></rects>
      <tilted>0</tilted></_>
    <_>
      <rects>
        <_>
          25 39 7 22 -1.</_>
        <_>
          25 50 7 11 2.</_></rects>
      <tilted>0</tilted></_>
    <_>
      <rects>
        <_>
          26 0 39 21 -1.</_>
        <_>
          39 7 13 7 9.</_></rects>
      <tilted>0</tilted></_>
    <_>
      <rects>
        <_>
          27 22 28 10 -1.</_>
        <_>
          27 27 28 5 2.</_></rects>
      <tilted>0</tilted></_>
    <_>
      <rects>
        <_>
          28 39 30 38 -1.</_>
        <_>
          38 39 10 38 3.</_></rects>
      <tilted>0</tilted></_>
    <_>
      <rects>
        <_>
          32 0 33 33 -1.</_>
        <_>
          43 11 11 11 9.</_></rects>
      <tilted>0</tilted></_>
    <_>
      <rects>
        <_>
          33 47 16 10 -1.</_>
        <_>
          33 47 16 5 2.</_></rects>
      <tilted>1</tilted></_>
    <_>
      <rects>
        <_>
          36 62 4 8 -1.</_>
        <_>
          38 62 2 8 2.</_></rects>
      <tilted>0</tilted></_>
    <_>
      <rects>
        <_>
          38 0 12 28 -1.</_>
        <_>
          38 7 12 14 2.</_></rects>
      <tilted>0</tilted></_>
    <_>
      <rects>
        <_>
          39 23 19 20 -1.</_>
        <_>
          34 28 19 10 2.</_></rects>
      <tilted>1</tilted></_>
    <_>
      <rects>
        <_>
          41 87 24 3 -1.</_>
        <_>
          53 87 12 3 2.</_></rects>
      <tilted>0</tilted></_>
    <_>
      <rects>
        <_>
          44 10 10 80 -1.</_>
        <_>
          49 10 5 80 2.</_></rects>
      <tilted>0</tilted></_>
    <_>
      <rects>
        <_>
          47 8 16 56 -1.</_>
        <_>
          55 8 8 56 2.</_></rects>
      <tilted>0</tilted></_>
    <_>
      <rects>
        <_>
          60 0 3 28 -1.</_>
        <_>
          60 14 3 14 2.</_></rects>
      <tilted>0</tilted></_></features></cascade>
</opencv_storage>
