<?xml version="1.0"?>
<opencv_storage>
<cascade>
  <stageType>BOOST</stageType>
  <featureType>HAAR</featureType>
  <height>90</height>
  <width>20</width>
  <stageParams>
    <boostType>GAB</boostType>
    <minHitRate>9.9500000476837158e-01</minHitRate>
    <maxFalseAlarm>5.0000000000000000e-01</maxFalseAlarm>
    <weightTrimRate>9.4999999999999996e-01</weightTrimRate>
    <maxDepth>1</maxDepth>
    <maxWeakCount>100</maxWeakCount></stageParams>
  <featureParams>
    <maxCatCount>0</maxCatCount>
    <featSize>1</featSize>
    <mode>ALL</mode></featureParams>
  <stageNum>3</stageNum>
  <stages>
    <!-- stage 0 -->
    <_>
      <maxWeakCount>1</maxWeakCount>
      <stageThreshold>9.7886395454406738e-01</stageThreshold>
      <weakClassifiers>
        <_>
          <internalNodes>
            0 -1 0 2.7558428049087524e-01</internalNodes>
          <leafValues>
            -9.9919778108596802e-01 9.7886395454406738e-01</leafValues></_></weakClassifiers></_>
    <!-- stage 1 -->
    <_>
      <maxWeakCount>2</maxWeakCount>
      <stageThreshold>-3.4230858087539673e-01</stageThreshold>
      <weakClassifiers>
        <_>
          <internalNodes>
            0 -1 3 -7.9931065440177917e-02</internalNodes>
          <leafValues>
            8.1495565176010132e-01 -9.7236895561218262e-01</leafValues></_>
        <_>
          <internalNodes>
            0 -1 1 1.0424399375915527e-01</internalNodes>
          <leafValues>
            -9.9599933624267578e-01 6.3006037473678589e-01</leafValues></_></weakClassifiers></_>
    <!-- stage 2 -->
    <_>
      <maxWeakCount>2</maxWeakCount>
      <stageThreshold>-2.8475761413574219e-01</stageThreshold>
      <weakClassifiers>
        <_>
          <internalNodes>
            0 -1 4 1.8059681355953217e-01</internalNodes>
          <leafValues>
            -8.6746752262115479e-01 7.2964900732040405e-01</leafValues></_>
        <_>
          <internalNodes>
            0 -1 2 1.1830546893179417e-02</internalNodes>
          <leafValues>
            -9.3960851430892944e-01 5.8270990848541260e-01</leafValues></_></weakClassifiers></_></stages>
  <features>
    <_>
      <rects>
        <_>
          2 4 16 86 -1.</_>
        <_>
          6 4 8 86 2.</_></rects>
      <tilted>0</tilted></_>
    <_>
      <rects>
        <_>
          7 5 6 66 -1.</_>
        <_>
          7 27 6 22 3.</_></rects>
      <tilted>0</tilted></_>
    <_>
      <rects>
        <_>
          7 28 8 12 -1.</_>
        <_>
          7 34 8 6 2.</_></rects>
      <tilted>0</tilted></_>
    <_>
      <rects>
        <_>
          7 43 7 42 -1.</_>
        <_>
          7 57 7 14 3.</_></rects>
      <tilted>0</tilted></_>
    <_>
      <rects>
        <_>
          8 11 9 76 -1.</_>
        <_>
          11 11 3 76 3.</_></rects>
      <tilted>0</tilted></_></features></cascade>
</opencv_storage>
