<?xml version="1.0"?>
<opencv_storage>
<cascade>
  <stageType>BOOST</stageType>
  <featureType>HAAR</featureType>
  <height>40</height>
  <width>90</width>
  <stageParams>
    <boostType>GAB</boostType>
    <minHitRate>9.9500000476837158e-01</minHitRate>
    <maxFalseAlarm>5.0000000000000000e-01</maxFalseAlarm>
    <weightTrimRate>9.4999999999999996e-01</weightTrimRate>
    <maxDepth>1</maxDepth>
    <maxWeakCount>100</maxWeakCount></stageParams>
  <featureParams>
    <maxCatCount>0</maxCatCount>
    <featSize>1</featSize>
    <mode>ALL</mode></featureParams>
  <stageNum>10</stageNum>
  <stages>
    <!-- stage 0 -->
    <_>
      <maxWeakCount>2</maxWeakCount>
      <stageThreshold>-1.6664624214172363e-01</stageThreshold>
      <weakClassifiers>
        <_>
          <internalNodes>
            0 -1 8 1.1392069607973099e-01</internalNodes>
          <leafValues>
            -9.8859935998916626e-01 9.4032919406890869e-01</leafValues></_>
        <_>
          <internalNodes>
            0 -1 2 8.4532156586647034e-02</internalNodes>
          <leafValues>
            -9.1113466024398804e-01 8.2195311784744263e-01</leafValues></_></weakClassifiers></_>
    <!-- stage 1 -->
    <_>
      <maxWeakCount>1</maxWeakCount>
      <stageThreshold>7.7072143554687500e-01</stageThreshold>
      <weakClassifiers>
        <_>
          <internalNodes>
            0 -1 1 7.9536801204085350e-03</internalNodes>
          <leafValues>
            -9.9645781517028809e-01 7.7072143554687500e-01</leafValues></_></weakClassifiers></_>
    <!-- stage 2 -->
    <_>
      <maxWeakCount>3</maxWeakCount>
      <stageThreshold>-1.2499310970306396e+00</stageThreshold>
      <weakClassifiers>
        <_>
          <internalNodes>
            0 -1 18 2.6737353764474392e-03</internalNodes>
          <leafValues>
            -9.4247603416442871e-01 8.3008497953414917e-01</leafValues></_>
        <_>
          <internalNodes>
            0 -1 12 2.8693322092294693e-03</internalNodes>
          <leafValues>
            -9.2492836713790894e-01 6.9367277622222900e-01</leafValues></_>
        <_>
          <internalNodes>
            0 -1 6 2.9492128640413284e-02</internalNodes>
          <leafValues>
            -9.9072378873825073e-01 6.1747336387634277e-01</leafValues></_></weakClassifiers></_>
    <!-- stage 3 -->
    <_>
      <maxWeakCount>2</maxWeakCount>
      <stageThreshold>-1.5843525528907776e-01</stageThreshold>
      <weakClassifiers>
        <_>
          <internalNodes>
            0 -1 7 -2.7549432707019150e-04</internalNodes>
          <leafValues>
            8.0287694931030273e-01 -8.3511692285537720e-01</leafValues></_>
        <_>
          <internalNodes>
            0 -1 20 9.9734030663967133e-03</internalNodes>
          <leafValues>
            -9.3064320087432861e-01 6.7668169736862183e-01</leafValues></_></weakClassifiers></_>
    <!-- stage 4 -->
    <_>
      <maxWeakCount>2</maxWeakCount>
      <stageThreshold>-3.9396071434020996e-01</stageThreshold>
      <weakClassifiers>
        <_>
          <internalNodes>
            0 -1 19 -8.6890300735831261e-04</internalNodes>
          <leafValues>
            6.7392313480377197e-01 -9.1700136661529541e-01</leafValues></_>
        <_>
          <internalNodes>
            0 -1 4 8.6633872706443071e-04</internalNodes>
          <leafValues>
            -9.6994698047637939e-01 5.2304065227508545e-01</leafValues></_></weakClassifiers></_>
    <!-- stage 5 -->
    <_>
      <maxWeakCount>2</maxWeakCount>
      <stageThreshold>-3.4837266802787781e-01</stageThreshold>
      <weakClassifiers>
        <_>
          <internalNodes>
            0 -1 13 -2.3053830955177546e-03</internalNodes>
          <leafValues>
            6.0826987028121948e-01 -9.5005947351455688e-01</leafValues></_>
        <_>
          <internalNodes>
            0 -1 3 -1.0484850499778986e-03</internalNodes>
          <leafValues>
            6.0168677568435669e-01 -8.8264846801757812e-01</leafValues></_></weakClassifiers></_>
    <!-- stage 6 -->
    <_>
      <maxWeakCount>2</maxWeakCount>
      <stageThreshold>-2.0146690309047699e-01</stageThreshold>
      <weakClassifiers>
        <_>
          <internalNodes>
            0 -1 14 -1.1776186525821686e-02</internalNodes>
          <leafValues>
            5.2503055334091187e-01 -9.7272258996963501e-01</leafValues></_>
        <_>
          <internalNodes>
            0 -1 17 -2.2042426280677319e-03</internalNodes>
          <leafValues>
            7.7125567197799683e-01 -7.1577310562133789e-01</leafValues></_></weakClassifiers></_>
    <!-- stage 7 -->
    <_>
      <maxWeakCount>2</maxWeakCount>
      <stageThreshold>-3.8450804352760315e-01</stageThreshold>
      <weakClassifiers>
        <_>
          <internalNodes>
            0 -1 5 6.1288122087717056e-03</internalNodes>
          <leafValues>
            -8.6313164234161377e-01 5.9471166133880615e-01</leafValues></_>
        <_>
          <internalNodes>
            0 -1 11 4.6664448454976082e-03</internalNodes>
          <leafValues>
            -9.7921967506408691e-01 5.0317066907882690e-01</leafValues></_></weakClassifiers></_>
    <!-- stage 8 -->
    <_>
      <maxWeakCount>4</maxWeakCount>
      <stageThreshold>-7.9765683412551880e-01</stageThreshold>
      <weakClassifiers>
        <_>
          <internalNodes>
            0 -1 16 -3.5273941466584802e-04</internalNodes>
          <leafValues>
            5.4817849397659302e-01 -8.9954340457916260e-01</leafValues></_>
        <_>
          <internalNodes>
            0 -1 9 2.1339911036193371e-03</internalNodes>
          <leafValues>
            -7.8509092330932617e-01 5.6115245819091797e-01</leafValues></_>
        <_>
          <internalNodes>
            0 -1 10 1.6590647399425507e-02</internalNodes>
          <leafValues>
            -9.9509233236312866e-01 4.4190934300422668e-01</leafValues></_>
        <_>
          <internalNodes>
            0 -1 0 -1.2714048847556114e-02</internalNodes>
          <leafValues>
            4.4506815075874329e-01 -9.5154112577438354e-01</leafValues></_></weakClassifiers></_>
    <!-- stage 9 -->
    <_>
      <maxWeakCount>2</maxWeakCount>
      <stageThreshold>-3.7363007664680481e-01</stageThreshold>
      <weakClassifiers>
        <_>
          <internalNodes>
            0 -1 9 2.0539711695164442e-03</internalNodes>
          <leafValues>
            -8.5937851667404175e-01 5.8961510658264160e-01</leafValues></_>
        <_>
          <internalNodes>
            0 -1 15 5.4103387519717216e-03</internalNodes>
          <leafValues>
            -9.6324521303176880e-01 5.3065067529678345e-01</leafValues></_></weakClassifiers></_></stages>
  <features>
    <_>
      <rects>
        <_>
          4 35 62 5 -1.</_>
        <_>
          35 35 31 5 2.</_></rects>
      <tilted>0</tilted></_>
    <_>
      <rects>
        <_>
          10 12 10 16 -1.</_>
        <_>
          15 12 5 16 2.</_></rects>
      <tilted>0</tilted></_>
    <_>
      <rects>
        <_>
          15 8 30 21 -1.</_>
        <_>
          15 15 30 7 3.</_></rects>
      <tilted>0</tilted></_>
    <_>
      <rects>
        <_>
          19 12 6 12 -1.</_>
        <_>
          21 12 2 12 3.</_></rects>
      <tilted>0</tilted></_>
    <_>
      <rects>
        <_>
          28 4 12 6 -1.</_>
        <_>
          32 4 4 6 3.</_></rects>
      <tilted>0</tilted></_>
    <_>
      <rects>
        <_>
          29 11 15 8 -1.</_>
        <_>
          27 13 15 4 2.</_></rects>
      <tilted>1</tilted></_>
    <_>
      <rects>
        <_>
          30 15 52 12 -1.</_>
        <_>
          43 15 26 12 2.</_></rects>
      <tilted>0</tilted></_>
    <_>
      <rects>
        <_>
          32 16 4 4 -1.</_>
        <_>
          33 16 2 4 2.</_></rects>
      <tilted>0</tilted></_>
    <_>
      <rects>
        <_>
          33 8 30 24 -1.</_>
        <_>
          33 16 30 8 3.</_></rects>
      <tilted>0</tilted></_>
    <_>
      <rects>
        <_>
          34 17 3 6 -1.</_>
        <_>
          32 19 3 2 3.</_></rects>
      <tilted>1</tilted></_>
    <_>
      <rects>
        <_>
          39 9 33 29 -1.</_>
        <_>
          50 9 11 29 3.</_></rects>
      <tilted>0</tilted></_>
    <_>
      <rects>
        <_>
          41 7 14 8 -1.</_>
        <_>
          39 9 14 4 2.</_></rects>
      <tilted>1</tilted></_>
    <_>
      <rects>
        <_>
          48 9 12 10 -1.</_>
        <_>
          52 9 4 10 3.</_></rects>
      <tilted>0</tilted></_>
    <_>
      <rects>
        <_>
          53 7 6 15 -1.</_>
        <_>
          56 7 3 15 2.</_></rects>
      <tilted>0</tilted></_>
    <_>
      <rects>
        <_>
          54 19 30 3 -1.</_>
        <_>
          69 19 15 3 2.</_></rects>
      <tilted>0</tilted></_>
    <_>
      <rects>
        <_>
          58 19 18 8 -1.</_>
        <_>
          64 19 6 8 3.</_></rects>
      <tilted>0</tilted></_>
    <_>
      <rects>
        <_>
          59 15 4 6 -1.</_>
        <_>
          60 16 2 6 2.</_></rects>
      <tilted>1</tilted></_>
    <_>
      <rects>
        <_>
          62 16 6 8 -1.</_>
        <_>
          64 16 2 8 3.</_></rects>
      <tilted>0</tilted></_>
    <_>
      <rects>
        <_>
          62 19 12 5 -1.</_>
        <_>
          66 19 4 5 3.</_></rects>
      <tilted>0</tilted></_>
    <_>
      <rects>
        <_>
          67 14 4 6 -1.</_>
        <_>
          68 15 2 6 2.</_></rects>
      <tilted>1</tilted></_>
    <_>
      <rects>
        <_>
          73 7 9 11 -1.</_>
        <_>
          76 10 3 11 3.</_></rects>
      <tilted>1</tilted></_></features></cascade>
</opencv_storage>
