<?xml version="1.0"?>
<opencv_storage>
<cascade>
  <stageType>BOOST</stageType>
  <featureType>HAAR</featureType>
  <height>95</height>
  <width>25</width>
  <stageParams>
    <boostType>GAB</boostType>
    <minHitRate>9.9500000476837158e-01</minHitRate>
    <maxFalseAlarm>5.0000000000000000e-01</maxFalseAlarm>
    <weightTrimRate>9.4999999999999996e-01</weightTrimRate>
    <maxDepth>1</maxDepth>
    <maxWeakCount>100</maxWeakCount></stageParams>
  <featureParams>
    <maxCatCount>0</maxCatCount>
    <featSize>1</featSize>
    <mode>ALL</mode></featureParams>
  <stageNum>7</stageNum>
  <stages>
    <!-- stage 0 -->
    <_>
      <maxWeakCount>2</maxWeakCount>
      <stageThreshold>-5.1454726606607437e-02</stageThreshold>
      <weakClassifiers>
        <_>
          <internalNodes>
            0 -1 0 -7.6944589614868164e-02</internalNodes>
          <leafValues>
            9.4670844078063965e-01 -9.9353271722793579e-01</leafValues></_>
        <_>
          <internalNodes>
            0 -1 11 -4.2676500976085663e-02</internalNodes>
          <leafValues>
            9.4207799434661865e-01 -9.8554331064224243e-01</leafValues></_></weakClassifiers></_>
    <!-- stage 1 -->
    <_>
      <maxWeakCount>2</maxWeakCount>
      <stageThreshold>-1.7167924344539642e-01</stageThreshold>
      <weakClassifiers>
        <_>
          <internalNodes>
            0 -1 1 -1.2688755989074707e-01</internalNodes>
          <leafValues>
            8.0927836894989014e-01 -9.8202341794967651e-01</leafValues></_>
        <_>
          <internalNodes>
            0 -1 7 -5.9363234788179398e-02</internalNodes>
          <leafValues>
            8.1034415960311890e-01 -9.4994306564331055e-01</leafValues></_></weakClassifiers></_>
    <!-- stage 2 -->
    <_>
      <maxWeakCount>2</maxWeakCount>
      <stageThreshold>-3.4404060244560242e-01</stageThreshold>
      <weakClassifiers>
        <_>
          <internalNodes>
            0 -1 12 -1.0327139869332314e-02</internalNodes>
          <leafValues>
            8.0320537090301514e-01 -9.6636909246444702e-01</leafValues></_>
        <_>
          <internalNodes>
            0 -1 6 -7.4830800294876099e-02</internalNodes>
          <leafValues>
            6.2232851982116699e-01 -9.1065567731857300e-01</leafValues></_></weakClassifiers></_>
    <!-- stage 3 -->
    <_>
      <maxWeakCount>2</maxWeakCount>
      <stageThreshold>-3.4225007891654968e-01</stageThreshold>
      <weakClassifiers>
        <_>
          <internalNodes>
            0 -1 10 -6.4645789563655853e-02</internalNodes>
          <leafValues>
            7.0641535520553589e-01 -9.3840962648391724e-01</leafValues></_>
        <_>
          <internalNodes>
            0 -1 9 -1.1575575917959213e-02</internalNodes>
          <leafValues>
            5.9615951776504517e-01 -9.5107185840606689e-01</leafValues></_></weakClassifiers></_>
    <!-- stage 4 -->
    <_>
      <maxWeakCount>2</maxWeakCount>
      <stageThreshold>-3.0651322007179260e-01</stageThreshold>
      <weakClassifiers>
        <_>
          <internalNodes>
            0 -1 13 -1.9325349479913712e-02</internalNodes>
          <leafValues>
            7.7463579177856445e-01 -8.3391404151916504e-01</leafValues></_>
        <_>
          <internalNodes>
            0 -1 8 -3.9443217217922211e-02</internalNodes>
          <leafValues>
            5.2740085124969482e-01 -9.6492660045623779e-01</leafValues></_></weakClassifiers></_>
    <!-- stage 5 -->
    <_>
      <maxWeakCount>3</maxWeakCount>
      <stageThreshold>-9.5233666896820068e-01</stageThreshold>
      <weakClassifiers>
        <_>
          <internalNodes>
            0 -1 3 -1.7688018083572388e-01</internalNodes>
          <leafValues>
            8.7381404638290405e-01 -8.0526703596115112e-01</leafValues></_>
        <_>
          <internalNodes>
            0 -1 2 -3.9045137166976929e-01</internalNodes>
          <leafValues>
            7.7312511205673218e-01 -7.7237647771835327e-01</leafValues></_>
        <_>
          <internalNodes>
            0 -1 5 2.7023807168006897e-02</internalNodes>
          <leafValues>
            -9.2019468545913696e-01 6.4291125535964966e-01</leafValues></_></weakClassifiers></_>
    <!-- stage 6 -->
    <_>
      <maxWeakCount>3</maxWeakCount>
      <stageThreshold>-1.0936164855957031e+00</stageThreshold>
      <weakClassifiers>
        <_>
          <internalNodes>
            0 -1 14 -1.4703772030770779e-03</internalNodes>
          <leafValues>
            5.8857929706573486e-01 -9.1682994365692139e-01</leafValues></_>
        <_>
          <internalNodes>
            0 -1 15 -3.6036606878042221e-02</internalNodes>
          <leafValues>
            5.6422555446624756e-01 -8.7522512674331665e-01</leafValues></_>
        <_>
          <internalNodes>
            0 -1 4 -7.0557251572608948e-02</internalNodes>
          <leafValues>
            8.3719772100448608e-01 -7.4101209640502930e-01</leafValues></_></weakClassifiers></_></stages>
  <features>
    <_>
      <rects>
        <_>
          0 15 15 32 -1.</_>
        <_>
          5 15 5 32 3.</_></rects>
      <tilted>0</tilted></_>
    <_>
      <rects>
        <_>
          0 69 24 26 -1.</_>
        <_>
          6 69 12 26 2.</_></rects>
      <tilted>0</tilted></_>
    <_>
      <rects>
        <_>
          1 5 24 90 -1.</_>
        <_>
          7 5 12 90 2.</_></rects>
      <tilted>0</tilted></_>
    <_>
      <rects>
        <_>
          1 14 12 58 -1.</_>
        <_>
          5 14 4 58 3.</_></rects>
      <tilted>0</tilted></_>
    <_>
      <rects>
        <_>
          1 26 12 18 -1.</_>
        <_>
          5 26 4 18 3.</_></rects>
      <tilted>0</tilted></_>
    <_>
      <rects>
        <_>
          2 9 12 32 -1.</_>
        <_>
          2 9 6 16 2.</_>
        <_>
          8 25 6 16 2.</_></rects>
      <tilted>0</tilted></_>
    <_>
      <rects>
        <_>
          2 17 12 46 -1.</_>
        <_>
          5 17 6 46 2.</_></rects>
      <tilted>0</tilted></_>
    <_>
      <rects>
        <_>
          4 0 11 22 -1.</_>
        <_>
          4 11 11 11 2.</_></rects>
      <tilted>0</tilted></_>
    <_>
      <rects>
        <_>
          5 35 10 56 -1.</_>
        <_>
          5 49 10 28 2.</_></rects>
      <tilted>0</tilted></_>
    <_>
      <rects>
        <_>
          6 4 15 13 -1.</_>
        <_>
          11 4 5 13 3.</_></rects>
      <tilted>0</tilted></_>
    <_>
      <rects>
        <_>
          11 0 12 73 -1.</_>
        <_>
          14 0 6 73 2.</_></rects>
      <tilted>0</tilted></_>
    <_>
      <rects>
        <_>
          11 29 12 40 -1.</_>
        <_>
          14 29 6 40 2.</_></rects>
      <tilted>0</tilted></_>
    <_>
      <rects>
        <_>
          12 28 1 36 -1.</_>
        <_>
          12 46 1 18 2.</_></rects>
      <tilted>0</tilted></_>
    <_>
      <rects>
        <_>
          13 6 7 12 -1.</_>
        <_>
          13 12 7 6 2.</_></rects>
      <tilted>0</tilted></_>
    <_>
      <rects>
        <_>
          15 16 6 9 -1.</_>
        <_>
          17 16 2 9 3.</_></rects>
      <tilted>0</tilted></_>
    <_>
      <rects>
        <_>
          16 0 5 40 -1.</_>
        <_>
          16 20 5 20 2.</_></rects>
      <tilted>0</tilted></_></features></cascade>
</opencv_storage>
