<?xml version="1.0"?>
<opencv_storage>
<cascade>
  <stageType>BOOST</stageType>
  <featureType>HAAR</featureType>
  <height>50</height>
  <width>50</width>
  <stageParams>
    <boostType>GAB</boostType>
    <minHitRate>9.9500000476837158e-01</minHitRate>
    <maxFalseAlarm>5.0000000000000000e-01</maxFalseAlarm>
    <weightTrimRate>9.4999999999999996e-01</weightTrimRate>
    <maxDepth>1</maxDepth>
    <maxWeakCount>100</maxWeakCount></stageParams>
  <featureParams>
    <maxCatCount>0</maxCatCount>
    <featSize>1</featSize>
    <mode>ALL</mode></featureParams>
  <stageNum>8</stageNum>
  <stages>
    <!-- stage 0 -->
    <_>
      <maxWeakCount>2</maxWeakCount>
      <stageThreshold>-3.2807371020317078e-01</stageThreshold>
      <weakClassifiers>
        <_>
          <internalNodes>
            0 -1 4 -1.9449658691883087e-01</internalNodes>
          <leafValues>
            9.1606366634368896e-01 -9.7693377733230591e-01</leafValues></_>
        <_>
          <internalNodes>
            0 -1 16 7.7609464526176453e-02</internalNodes>
          <leafValues>
            -9.9056261777877808e-01 6.4886009693145752e-01</leafValues></_></weakClassifiers></_>
    <!-- stage 1 -->
    <_>
      <maxWeakCount>3</maxWeakCount>
      <stageThreshold>-1.6331936120986938e+00</stageThreshold>
      <weakClassifiers>
        <_>
          <internalNodes>
            0 -1 5 -2.7244842052459717e-01</internalNodes>
          <leafValues>
            6.1671471595764160e-01 -9.3672901391983032e-01</leafValues></_>
        <_>
          <internalNodes>
            0 -1 22 6.9583803415298462e-02</internalNodes>
          <leafValues>
            -9.6263623237609863e-01 4.1983687877655029e-01</leafValues></_>
        <_>
          <internalNodes>
            0 -1 0 -5.2422277629375458e-02</internalNodes>
          <leafValues>
            2.6617166399955750e-01 -9.3279886245727539e-01</leafValues></_></weakClassifiers></_>
    <!-- stage 2 -->
    <_>
      <maxWeakCount>5</maxWeakCount>
      <stageThreshold>-1.8578412532806396e+00</stageThreshold>
      <weakClassifiers>
        <_>
          <internalNodes>
            0 -1 3 -6.8526899814605713e-01</internalNodes>
          <leafValues>
            4.4113841652870178e-01 -9.3410146236419678e-01</leafValues></_>
        <_>
          <internalNodes>
            0 -1 19 1.0049484670162201e-01</internalNodes>
          <leafValues>
            -8.7464380264282227e-01 1.9485627114772797e-01</leafValues></_>
        <_>
          <internalNodes>
            0 -1 18 1.8332108855247498e-02</internalNodes>
          <leafValues>
            -8.3847510814666748e-01 3.4869849681854248e-01</leafValues></_>
        <_>
          <internalNodes>
            0 -1 20 -4.0573999285697937e-03</internalNodes>
          <leafValues>
            4.5295485854148865e-01 -7.8168040513992310e-01</leafValues></_>
        <_>
          <internalNodes>
            0 -1 12 -4.1690222918987274e-02</internalNodes>
          <leafValues>
            4.3829262256622314e-01 -8.5074925422668457e-01</leafValues></_></weakClassifiers></_>
    <!-- stage 3 -->
    <_>
      <maxWeakCount>4</maxWeakCount>
      <stageThreshold>-1.3738251924514771e+00</stageThreshold>
      <weakClassifiers>
        <_>
          <internalNodes>
            0 -1 8 -2.5792899727821350e-01</internalNodes>
          <leafValues>
            1.5359115600585938e-01 -9.1775703430175781e-01</leafValues></_>
        <_>
          <internalNodes>
            0 -1 26 2.5281012058258057e-02</internalNodes>
          <leafValues>
            -8.8208323717117310e-01 2.9472842812538147e-01</leafValues></_>
        <_>
          <internalNodes>
            0 -1 6 3.6831300705671310e-02</internalNodes>
          <leafValues>
            -9.6590572595596313e-01 3.4391891956329346e-01</leafValues></_>
        <_>
          <internalNodes>
            0 -1 23 7.2759136557579041e-02</internalNodes>
          <leafValues>
            -9.4094979763031006e-01 3.2057261466979980e-01</leafValues></_></weakClassifiers></_>
    <!-- stage 4 -->
    <_>
      <maxWeakCount>4</maxWeakCount>
      <stageThreshold>-1.5398637056350708e+00</stageThreshold>
      <weakClassifiers>
        <_>
          <internalNodes>
            0 -1 11 -4.5969679951667786e-02</internalNodes>
          <leafValues>
            7.8579120337963104e-02 -9.0857857465744019e-01</leafValues></_>
        <_>
          <internalNodes>
            0 -1 13 6.8549133837223053e-02</internalNodes>
          <leafValues>
            -9.4105142354965210e-01 8.6322553455829620e-02</leafValues></_>
        <_>
          <internalNodes>
            0 -1 1 -3.1740283966064453e-01</internalNodes>
          <leafValues>
            3.8727432489395142e-01 -7.6130336523056030e-01</leafValues></_>
        <_>
          <internalNodes>
            0 -1 14 3.5361662507057190e-02</internalNodes>
          <leafValues>
            -9.4346201419830322e-01 3.6730775237083435e-01</leafValues></_></weakClassifiers></_>
    <!-- stage 5 -->
    <_>
      <maxWeakCount>4</maxWeakCount>
      <stageThreshold>-1.3042516708374023e+00</stageThreshold>
      <weakClassifiers>
        <_>
          <internalNodes>
            0 -1 9 -3.4313559532165527e-02</internalNodes>
          <leafValues>
            3.3333334326744080e-01 -8.6656320095062256e-01</leafValues></_>
        <_>
          <internalNodes>
            0 -1 2 -2.2878830134868622e-01</internalNodes>
          <leafValues>
            2.1471934020519257e-01 -8.1082314252853394e-01</leafValues></_>
        <_>
          <internalNodes>
            0 -1 10 -1.4414846664294600e-03</internalNodes>
          <leafValues>
            -9.1514474153518677e-01 3.0588507652282715e-01</leafValues></_>
        <_>
          <internalNodes>
            0 -1 27 -3.8556504296138883e-04</internalNodes>
          <leafValues>
            -9.9590718746185303e-01 2.6273691654205322e-01</leafValues></_></weakClassifiers></_>
    <!-- stage 6 -->
    <_>
      <maxWeakCount>3</maxWeakCount>
      <stageThreshold>-1.2837196588516235e+00</stageThreshold>
      <weakClassifiers>
        <_>
          <internalNodes>
            0 -1 25 5.3839750587940216e-02</internalNodes>
          <leafValues>
            -8.4251081943511963e-01 5.0877195596694946e-01</leafValues></_>
        <_>
          <internalNodes>
            0 -1 24 1.6216885298490524e-02</internalNodes>
          <leafValues>
            -7.4429458379745483e-01 3.9682760834693909e-01</leafValues></_>
        <_>
          <internalNodes>
            0 -1 7 9.8200654610991478e-04</internalNodes>
          <leafValues>
            3.0308571457862854e-01 -9.7975093126296997e-01</leafValues></_></weakClassifiers></_>
    <!-- stage 7 -->
    <_>
      <maxWeakCount>3</maxWeakCount>
      <stageThreshold>-1.8101460933685303e+00</stageThreshold>
      <weakClassifiers>
        <_>
          <internalNodes>
            0 -1 21 1.7922657728195190e-01</internalNodes>
          <leafValues>
            -9.5458799600601196e-01 -1.3950276374816895e-01</leafValues></_>
        <_>
          <internalNodes>
            0 -1 17 -7.0592284202575684e-02</internalNodes>
          <leafValues>
            4.2272362112998962e-01 -7.6631468534469604e-01</leafValues></_>
        <_>
          <internalNodes>
            0 -1 15 -2.9653809033334255e-03</internalNodes>
          <leafValues>
            -9.0432858467102051e-01 3.9220562577247620e-01</leafValues></_></weakClassifiers></_></stages>
  <features>
    <_>
      <rects>
        <_>
          0 6 16 40 -1.</_>
        <_>
          8 6 8 40 2.</_></rects>
      <tilted>0</tilted></_>
    <_>
      <rects>
        <_>
          0 15 48 28 -1.</_>
        <_>
          12 15 24 28 2.</_></rects>
      <tilted>0</tilted></_>
    <_>
      <rects>
        <_>
          0 17 44 24 -1.</_>
        <_>
          11 17 22 24 2.</_></rects>
      <tilted>0</tilted></_>
    <_>
      <rects>
        <_>
          0 17 48 33 -1.</_>
        <_>
          16 28 16 11 9.</_></rects>
      <tilted>0</tilted></_>
    <_>
      <rects>
        <_>
          0 19 48 17 -1.</_>
        <_>
          12 19 24 17 2.</_></rects>
      <tilted>0</tilted></_>
    <_>
      <rects>
        <_>
          0 19 48 21 -1.</_>
        <_>
          12 19 24 21 2.</_></rects>
      <tilted>0</tilted></_>
    <_>
      <rects>
        <_>
          0 40 40 10 -1.</_>
        <_>
          0 45 40 5 2.</_></rects>
      <tilted>0</tilted></_>
    <_>
      <rects>
        <_>
          0 49 50 1 -1.</_>
        <_>
          25 49 25 1 2.</_></rects>
      <tilted>0</tilted></_>
    <_>
      <rects>
        <_>
          1 20 48 19 -1.</_>
        <_>
          13 20 24 19 2.</_></rects>
      <tilted>0</tilted></_>
    <_>
      <rects>
        <_>
          1 23 48 2 -1.</_>
        <_>
          13 23 24 2 2.</_></rects>
      <tilted>0</tilted></_>
    <_>
      <rects>
        <_>
          2 0 48 2 -1.</_>
        <_>
          14 0 24 2 2.</_></rects>
      <tilted>0</tilted></_>
    <_>
      <rects>
        <_>
          3 23 24 3 -1.</_>
        <_>
          11 31 8 3 3.</_></rects>
      <tilted>1</tilted></_>
    <_>
      <rects>
        <_>
          4 16 16 22 -1.</_>
        <_>
          12 16 8 22 2.</_></rects>
      <tilted>0</tilted></_>
    <_>
      <rects>
        <_>
          6 10 35 40 -1.</_>
        <_>
          6 30 35 20 2.</_></rects>
      <tilted>0</tilted></_>
    <_>
      <rects>
        <_>
          6 40 41 10 -1.</_>
        <_>
          6 45 41 5 2.</_></rects>
      <tilted>0</tilted></_>
    <_>
      <rects>
        <_>
          6 49 36 1 -1.</_>
        <_>
          24 49 18 1 2.</_></rects>
      <tilted>0</tilted></_>
    <_>
      <rects>
        <_>
          7 36 30 14 -1.</_>
        <_>
          7 43 30 7 2.</_></rects>
      <tilted>0</tilted></_>
    <_>
      <rects>
        <_>
          15 16 18 15 -1.</_>
        <_>
          21 22 6 15 3.</_></rects>
      <tilted>1</tilted></_>
    <_>
      <rects>
        <_>
          15 28 4 22 -1.</_>
        <_>
          15 39 4 11 2.</_></rects>
      <tilted>0</tilted></_>
    <_>
      <rects>
        <_>
          20 0 30 34 -1.</_>
        <_>
          20 0 15 17 2.</_>
        <_>
          35 17 15 17 2.</_></rects>
      <tilted>0</tilted></_>
    <_>
      <rects>
        <_>
          20 3 5 27 -1.</_>
        <_>
          20 12 5 9 3.</_></rects>
      <tilted>0</tilted></_>
    <_>
      <rects>
        <_>
          21 19 28 23 -1.</_>
        <_>
          35 19 14 23 2.</_></rects>
      <tilted>0</tilted></_>
    <_>
      <rects>
        <_>
          26 28 20 18 -1.</_>
        <_>
          36 28 10 18 2.</_></rects>
      <tilted>0</tilted></_>
    <_>
      <rects>
        <_>
          28 24 22 24 -1.</_>
        <_>
          39 24 11 24 2.</_></rects>
      <tilted>0</tilted></_>
    <_>
      <rects>
        <_>
          29 15 16 14 -1.</_>
        <_>
          29 15 8 7 2.</_>
        <_>
          37 22 8 7 2.</_></rects>
      <tilted>0</tilted></_>
    <_>
      <rects>
        <_>
          37 7 13 18 -1.</_>
        <_>
          37 16 13 9 2.</_></rects>
      <tilted>0</tilted></_>
    <_>
      <rects>
        <_>
          40 0 5 36 -1.</_>
        <_>
          40 18 5 18 2.</_></rects>
      <tilted>0</tilted></_>
    <_>
      <rects>
        <_>
          40 44 8 6 -1.</_>
        <_>
          40 47 8 3 2.</_></rects>
      <tilted>0</tilted></_></features></cascade>
</opencv_storage>
