<?xml version="1.0"?>
<opencv_storage>
<cascade>
  <stageType>BOOST</stageType>
  <featureType>LBP</featureType>
  <height>50</height>
  <width>50</width>
  <stageParams>
    <boostType>GAB</boostType>
    <minHitRate>9.9500000476837158e-01</minHitRate>
    <maxFalseAlarm>5.0000000000000000e-01</maxFalseAlarm>
    <weightTrimRate>9.4999999999999996e-01</weightTrimRate>
    <maxDepth>1</maxDepth>
    <maxWeakCount>100</maxWeakCount></stageParams>
  <featureParams>
    <maxCatCount>256</maxCatCount>
    <featSize>1</featSize></featureParams>
  <stageNum>6</stageNum>
  <stages>
    <!-- stage 0 -->
    <_>
      <maxWeakCount>3</maxWeakCount>
      <stageThreshold>-1.0821787118911743e+00</stageThreshold>
      <weakClassifiers>
        <_>
          <internalNodes>
            0 -1 4 -1 -2105377 1538513407 -4719625 -69468417 -4461605
            -70517761 -9</internalNodes>
          <leafValues>
            -9.7146648168563843e-01 8.7126433849334717e-01</leafValues></_>
        <_>
          <internalNodes>
            0 -1 9 -674103297 -2756097 -783170081 -3113 -8324161
            -73141098 -549065729 -262209</internalNodes>
          <leafValues>
            -9.3815040588378906e-01 8.0604457855224609e-01</leafValues></_>
        <_>
          <internalNodes>
            0 -1 0 -2097153 -270433 1384305951 -538977313 -113181715
            -606369606 1090679803 -2049</internalNodes>
          <leafValues>
            -9.1675674915313721e-01 8.4956115484237671e-01</leafValues></_></weakClassifiers></_>
    <!-- stage 1 -->
    <_>
      <maxWeakCount>3</maxWeakCount>
      <stageThreshold>-1.2681407928466797e+00</stageThreshold>
      <weakClassifiers>
        <_>
          <internalNodes>
            0 -1 11 -35782657 -2106369 -147203105 -4204545 -53871617
            -2495505 -7345153 -1</internalNodes>
          <leafValues>
            -9.5857989788055420e-01 9.0171992778778076e-01</leafValues></_>
        <_>
          <internalNodes>
            0 -1 3 -2097665 -6302242 -610283521 -538968745 -89391105
            -1078284037 -5521409 -1073742859</internalNodes>
          <leafValues>
            -9.4940447807312012e-01 6.2304753065109253e-01</leafValues></_>
        <_>
          <internalNodes>
            0 -1 16 -144703553 1071322099 934223839 1071644607 -69230661
            -1058357 -73400353 -262273</internalNodes>
          <leafValues>
            -9.3260848522186279e-01 7.1370834112167358e-01</leafValues></_></weakClassifiers></_>
    <!-- stage 2 -->
    <_>
      <maxWeakCount>3</maxWeakCount>
      <stageThreshold>-1.1601827144622803e+00</stageThreshold>
      <weakClassifiers>
        <_>
          <internalNodes>
            0 -1 6 -1 -142871441 -229649621 -739272209 -1769473
            -271595285 -1048577 -1025</internalNodes>
          <leafValues>
            -9.5771390199661255e-01 8.2938390970230103e-01</leafValues></_>
        <_>
          <internalNodes>
            0 -1 13 -3146241 -67120739 -619579937 -67112481 -270663697
            -73629496 -1163403521 -1025</internalNodes>
          <leafValues>
            -8.7280589342117310e-01 8.4387409687042236e-01</leafValues></_>
        <_>
          <internalNodes>
            0 -1 10 -235282947 -544681491 -242159265 -525441 -641475073
            -1109507171 -538973443 -1073774593</internalNodes>
          <leafValues>
            -9.5980840921401978e-01 6.7033708095550537e-01</leafValues></_></weakClassifiers></_>
    <!-- stage 3 -->
    <_>
      <maxWeakCount>3</maxWeakCount>
      <stageThreshold>-1.2707743644714355e+00</stageThreshold>
      <weakClassifiers>
        <_>
          <internalNodes>
            0 -1 15 -131073 -3438657 -380902625 -774378673 -1013976353
            -925113953 -69469285 -1</internalNodes>
          <leafValues>
            -9.5282393693923950e-01 7.2665148973464966e-01</leafValues></_>
        <_>
          <internalNodes>
            0 -1 7 -2099201 -213397301 -1843934105 -69862817 -560069908
            -1438089020 -140580117 -2098177</internalNodes>
          <leafValues>
            -9.1286307573318481e-01 7.7335399389266968e-01</leafValues></_>
        <_>
          <internalNodes>
            0 -1 8 1034362847 -1075850785 1539436031 -11113 2073779199
            -805786883 -7472129 -5248273</internalNodes>
          <leafValues>
            -9.4107657670974731e-01 5.9491264820098877e-01</leafValues></_></weakClassifiers></_>
    <!-- stage 4 -->
    <_>
      <maxWeakCount>3</maxWeakCount>
      <stageThreshold>-1.1631190776824951e+00</stageThreshold>
      <weakClassifiers>
        <_>
          <internalNodes>
            0 -1 14 -137366529 -1147407078 -653002241 -527873 -92013573
            -72371781 -73663489 -8209</internalNodes>
          <leafValues>
            -9.4473683834075928e-01 7.8973102569580078e-01</leafValues></_>
        <_>
          <internalNodes>
            0 -1 5 -2081 -15469662 -2079077937 -540020249 -372246021
            -1060913125 -607129905 -202377277</internalNodes>
          <leafValues>
            -8.9127206802368164e-01 7.1696543693542480e-01</leafValues></_>
        <_>
          <internalNodes>
            0 -1 1 -536871937 -1060001 961041366 -9440118 -78840833
            -381158780 1434969084 -551555233</internalNodes>
          <leafValues>
            -8.9620077610015869e-01 6.7288982868194580e-01</leafValues></_></weakClassifiers></_>
    <!-- stage 5 -->
    <_>
      <maxWeakCount>3</maxWeakCount>
      <stageThreshold>-1.1822897195816040e+00</stageThreshold>
      <weakClassifiers>
        <_>
          <internalNodes>
            0 -1 17 -35652641 -640549941 -8000673 -672143361 -1315841
            -85999441 -963924081 -538968065</internalNodes>
          <leafValues>
            -9.5333331823348999e-01 6.9265031814575195e-01</leafValues></_>
        <_>
          <internalNodes>
            0 -1 2 -211816193 -2105921 -1669310209 -539242017 -549860641
            -71709009 -561055489 -536875265</internalNodes>
          <leafValues>
            -8.8113355636596680e-01 8.2023555040359497e-01</leafValues></_>
        <_>
          <internalNodes>
            0 -1 12 -204081665 2145360127 -284838401 -4207785 -347129858
            -6573929 -23397633 -50529281</internalNodes>
          <leafValues>
            -9.2765289545059204e-01 6.5217709541320801e-01</leafValues></_></weakClassifiers></_></stages>
  <features>
    <_>
      <rect>
        0 11 4 9</rect></_>
    <_>
      <rect>
        0 17 4 8</rect></_>
    <_>
      <rect>
        0 41 9 3</rect></_>
    <_>
      <rect>
        1 0 10 4</rect></_>
    <_>
      <rect>
        1 1 8 6</rect></_>
    <_>
      <rect>
        2 5 2 8</rect></_>
    <_>
      <rect>
        2 5 8 14</rect></_>
    <_>
      <rect>
        2 23 2 9</rect></_>
    <_>
      <rect>
        4 18 12 3</rect></_>
    <_>
      <rect>
        7 13 5 11</rect></_>
    <_>
      <rect>
        9 3 12 12</rect></_>
    <_>
      <rect>
        16 17 6 6</rect></_>
    <_>
      <rect>
        21 1 6 3</rect></_>
    <_>
      <rect>
        21 25 3 3</rect></_>
    <_>
      <rect>
        27 37 6 4</rect></_>
    <_>
      <rect>
        29 8 4 12</rect></_>
    <_>
      <rect>
        29 9 7 7</rect></_>
    <_>
      <rect>
        35 14 5 10</rect></_></features></cascade>
</opencv_storage>
