<?xml version="1.0"?>
<opencv_storage>
<cascade>
  <stageType>BOOST</stageType>
  <featureType>HAAR</featureType>
  <height>50</height>
  <width>50</width>
  <stageParams>
    <boostType>GAB</boostType>
    <minHitRate>9.9500000476837158e-01</minHitRate>
    <maxFalseAlarm>5.0000000000000000e-01</maxFalseAlarm>
    <weightTrimRate>9.4999999999999996e-01</weightTrimRate>
    <maxDepth>1</maxDepth>
    <maxWeakCount>100</maxWeakCount></stageParams>
  <featureParams>
    <maxCatCount>0</maxCatCount>
    <featSize>1</featSize>
    <mode>ALL</mode></featureParams>
  <stageNum>7</stageNum>
  <stages>
    <!-- stage 0 -->
    <_>
      <maxWeakCount>4</maxWeakCount>
      <stageThreshold>-1.9410928487777710e+00</stageThreshold>
      <weakClassifiers>
        <_>
          <internalNodes>
            0 -1 5 8.2765165716409683e-03</internalNodes>
          <leafValues>
            -9.7364217042922974e-01 7.2511845827102661e-01</leafValues></_>
        <_>
          <internalNodes>
            0 -1 24 1.8194453790783882e-02</internalNodes>
          <leafValues>
            -9.3181645870208740e-01 6.7741703987121582e-01</leafValues></_>
        <_>
          <internalNodes>
            0 -1 1 -1.1348471743986011e-03</internalNodes>
          <leafValues>
            8.4602862596511841e-01 -8.0210959911346436e-01</leafValues></_>
        <_>
          <internalNodes>
            0 -1 7 4.6326941810548306e-03</internalNodes>
          <leafValues>
            -7.7028453350067139e-01 7.6647531986236572e-01</leafValues></_></weakClassifiers></_>
    <!-- stage 1 -->
    <_>
      <maxWeakCount>3</maxWeakCount>
      <stageThreshold>-1.2087240219116211e+00</stageThreshold>
      <weakClassifiers>
        <_>
          <internalNodes>
            0 -1 22 -1.9710894674062729e-02</internalNodes>
          <leafValues>
            8.2758623361587524e-01 -9.5592284202575684e-01</leafValues></_>
        <_>
          <internalNodes>
            0 -1 11 1.3662355020642281e-02</internalNodes>
          <leafValues>
            -9.2578697204589844e-01 6.0754847526550293e-01</leafValues></_>
        <_>
          <internalNodes>
            0 -1 0 5.6827533990144730e-04</internalNodes>
          <leafValues>
            -8.6034965515136719e-01 7.4188965559005737e-01</leafValues></_></weakClassifiers></_>
    <!-- stage 2 -->
    <_>
      <maxWeakCount>4</maxWeakCount>
      <stageThreshold>-1.9129142761230469e+00</stageThreshold>
      <weakClassifiers>
        <_>
          <internalNodes>
            0 -1 23 -2.7340654283761978e-02</internalNodes>
          <leafValues>
            7.7712607383728027e-01 -9.5008844137191772e-01</leafValues></_>
        <_>
          <internalNodes>
            0 -1 15 4.2894002981483936e-03</internalNodes>
          <leafValues>
            -8.8211756944656372e-01 7.4722421169281006e-01</leafValues></_>
        <_>
          <internalNodes>
            0 -1 21 7.4762343429028988e-03</internalNodes>
          <leafValues>
            -8.4137392044067383e-01 6.7538130283355713e-01</leafValues></_>
        <_>
          <internalNodes>
            0 -1 6 -2.0345360971987247e-03</internalNodes>
          <leafValues>
            7.6066571474075317e-01 -7.2617793083190918e-01</leafValues></_></weakClassifiers></_>
    <!-- stage 3 -->
    <_>
      <maxWeakCount>4</maxWeakCount>
      <stageThreshold>-2.1693091392517090e+00</stageThreshold>
      <weakClassifiers>
        <_>
          <internalNodes>
            0 -1 20 -2.3320987820625305e-02</internalNodes>
          <leafValues>
            8.1290322542190552e-01 -9.4179689884185791e-01</leafValues></_>
        <_>
          <internalNodes>
            0 -1 4 -5.1821866072714329e-03</internalNodes>
          <leafValues>
            5.3173089027404785e-01 -8.9639353752136230e-01</leafValues></_>
        <_>
          <internalNodes>
            0 -1 10 4.9214117228984833e-02</internalNodes>
          <leafValues>
            -9.1103392839431763e-01 4.5102822780609131e-01</leafValues></_>
        <_>
          <internalNodes>
            0 -1 3 1.2479450087994337e-03</internalNodes>
          <leafValues>
            -7.8005564212799072e-01 5.7991522550582886e-01</leafValues></_></weakClassifiers></_>
    <!-- stage 4 -->
    <_>
      <maxWeakCount>4</maxWeakCount>
      <stageThreshold>-1.9237399101257324e+00</stageThreshold>
      <weakClassifiers>
        <_>
          <internalNodes>
            0 -1 19 -1.8427055329084396e-02</internalNodes>
          <leafValues>
            7.5250834226608276e-01 -9.3451571464538574e-01</leafValues></_>
        <_>
          <internalNodes>
            0 -1 13 -5.8614341542124748e-03</internalNodes>
          <leafValues>
            5.4253005981445312e-01 -9.0162295103073120e-01</leafValues></_>
        <_>
          <internalNodes>
            0 -1 25 -9.1872084885835648e-03</internalNodes>
          <leafValues>
            8.1475025415420532e-01 -7.1060448884963989e-01</leafValues></_>
        <_>
          <internalNodes>
            0 -1 8 3.6982268095016479e-02</internalNodes>
          <leafValues>
            -8.2114982604980469e-01 6.3752216100692749e-01</leafValues></_></weakClassifiers></_>
    <!-- stage 5 -->
    <_>
      <maxWeakCount>4</maxWeakCount>
      <stageThreshold>-2.0504832267761230e+00</stageThreshold>
      <weakClassifiers>
        <_>
          <internalNodes>
            0 -1 18 2.5171686429530382e-03</internalNodes>
          <leafValues>
            -9.4812452793121338e-01 4.3540668487548828e-01</leafValues></_>
        <_>
          <internalNodes>
            0 -1 12 2.2089784964919090e-02</internalNodes>
          <leafValues>
            -9.2810034751892090e-01 3.8428032398223877e-01</leafValues></_>
        <_>
          <internalNodes>
            0 -1 26 -3.9257947355508804e-03</internalNodes>
          <leafValues>
            5.2928692102432251e-01 -8.2401293516159058e-01</leafValues></_>
        <_>
          <internalNodes>
            0 -1 17 -5.5323290871456265e-04</internalNodes>
          <leafValues>
            7.5967979431152344e-01 -6.6262614727020264e-01</leafValues></_></weakClassifiers></_>
    <!-- stage 6 -->
    <_>
      <maxWeakCount>4</maxWeakCount>
      <stageThreshold>-1.6155711412429810e+00</stageThreshold>
      <weakClassifiers>
        <_>
          <internalNodes>
            0 -1 16 1.1208919808268547e-02</internalNodes>
          <leafValues>
            -9.3056631088256836e-01 8.3211678266525269e-01</leafValues></_>
        <_>
          <internalNodes>
            0 -1 14 -1.1040398851037025e-02</internalNodes>
          <leafValues>
            5.1980984210968018e-01 -8.6033236980438232e-01</leafValues></_>
        <_>
          <internalNodes>
            0 -1 2 4.7976396977901459e-02</internalNodes>
          <leafValues>
            -6.9425189495086670e-01 9.3750065565109253e-01</leafValues></_>
        <_>
          <internalNodes>
            0 -1 9 1.2440496124327183e-02</internalNodes>
          <leafValues>
            -6.9183981418609619e-01 8.6957943439483643e-01</leafValues></_></weakClassifiers></_></stages>
  <features>
    <_>
      <rects>
        <_>
          1 13 2 4 -1.</_>
        <_>
          2 13 1 4 2.</_></rects>
      <tilted>0</tilted></_>
    <_>
      <rects>
        <_>
          1 23 3 6 -1.</_>
        <_>
          2 23 1 6 3.</_></rects>
      <tilted>0</tilted></_>
    <_>
      <rects>
        <_>
          2 0 33 6 -1.</_>
        <_>
          2 3 33 3 2.</_></rects>
      <tilted>0</tilted></_>
    <_>
      <rects>
        <_>
          2 35 6 5 -1.</_>
        <_>
          4 35 2 5 3.</_></rects>
      <tilted>0</tilted></_>
    <_>
      <rects>
        <_>
          3 20 6 8 -1.</_>
        <_>
          5 20 2 8 3.</_></rects>
      <tilted>0</tilted></_>
    <_>
      <rects>
        <_>
          8 18 6 13 -1.</_>
        <_>
          10 18 2 13 3.</_></rects>
      <tilted>0</tilted></_>
    <_>
      <rects>
        <_>
          9 1 20 3 -1.</_>
        <_>
          9 2 20 1 3.</_></rects>
      <tilted>0</tilted></_>
    <_>
      <rects>
        <_>
          9 13 6 23 -1.</_>
        <_>
          11 13 2 23 3.</_></rects>
      <tilted>0</tilted></_>
    <_>
      <rects>
        <_>
          10 9 33 6 -1.</_>
        <_>
          21 11 11 2 9.</_></rects>
      <tilted>0</tilted></_>
    <_>
      <rects>
        <_>
          12 28 11 6 -1.</_>
        <_>
          10 30 11 2 3.</_></rects>
      <tilted>1</tilted></_>
    <_>
      <rects>
        <_>
          14 25 22 24 -1.</_>
        <_>
          14 33 22 8 3.</_></rects>
      <tilted>0</tilted></_>
    <_>
      <rects>
        <_>
          16 0 24 1 -1.</_>
        <_>
          24 8 8 1 3.</_></rects>
      <tilted>1</tilted></_>
    <_>
      <rects>
        <_>
          16 20 6 12 -1.</_>
        <_>
          12 24 6 4 3.</_></rects>
      <tilted>1</tilted></_>
    <_>
      <rects>
        <_>
          17 3 4 12 -1.</_>
        <_>
          18 4 2 12 2.</_></rects>
      <tilted>1</tilted></_>
    <_>
      <rects>
        <_>
          19 3 16 6 -1.</_>
        <_>
          19 5 16 2 3.</_></rects>
      <tilted>0</tilted></_>
    <_>
      <rects>
        <_>
          19 8 3 9 -1.</_>
        <_>
          20 9 1 9 3.</_></rects>
      <tilted>1</tilted></_>
    <_>
      <rects>
        <_>
          21 19 9 5 -1.</_>
        <_>
          24 19 3 5 3.</_></rects>
      <tilted>0</tilted></_>
    <_>
      <rects>
        <_>
          24 18 3 9 -1.</_>
        <_>
          25 18 1 9 3.</_></rects>
      <tilted>0</tilted></_>
    <_>
      <rects>
        <_>
          31 20 4 8 -1.</_>
        <_>
          32 20 2 8 2.</_></rects>
      <tilted>0</tilted></_>
    <_>
      <rects>
        <_>
          32 22 9 6 -1.</_>
        <_>
          35 22 3 6 3.</_></rects>
      <tilted>0</tilted></_>
    <_>
      <rects>
        <_>
          33 20 9 9 -1.</_>
        <_>
          36 20 3 9 3.</_></rects>
      <tilted>0</tilted></_>
    <_>
      <rects>
        <_>
          35 17 6 13 -1.</_>
        <_>
          37 19 2 13 3.</_></rects>
      <tilted>1</tilted></_>
    <_>
      <rects>
        <_>
          36 2 12 6 -1.</_>
        <_>
          34 4 12 2 3.</_></rects>
      <tilted>1</tilted></_>
    <_>
      <rects>
        <_>
          40 17 9 16 -1.</_>
        <_>
          43 17 3 16 3.</_></rects>
      <tilted>0</tilted></_>
    <_>
      <rects>
        <_>
          41 23 6 16 -1.</_>
        <_>
          43 25 2 16 3.</_></rects>
      <tilted>1</tilted></_>
    <_>
      <rects>
        <_>
          43 17 6 20 -1.</_>
        <_>
          45 17 2 20 3.</_></rects>
      <tilted>0</tilted></_>
    <_>
      <rects>
        <_>
          43 30 4 16 -1.</_>
        <_>
          44 31 2 16 2.</_></rects>
      <tilted>1</tilted></_></features></cascade>
</opencv_storage>
